Language model created by QuickLM on Sun Sep 19 23:05:25 EDT 2021
Copyright (c) 1996-2010 Carnegie Mellon University and Alexander I. Rudnicky

The model is in standard ARPA format, designed by Doug Paul while he was at MITRE.

The code that was used to produce this language model is available in Open Source.
Please visit http://www.speech.cs.cmu.edu/tools/ for more information

The (fixed) discount mass is 0.5. The backoffs are computed using the ratio method.
This model based on a corpus of 112 sentences and 117 words

\data\
ngram 1=117
ngram 2=241
ngram 3=281

\1-grams:
-1.0212 </s> -0.3010
-1.0212 <s> -0.2576
-3.0704 ABOUT -0.2576
-3.0704 ACTIVATE -0.2981
-2.7694 ACTIVE -0.2992
-2.7694 ADD -0.2999
-2.1673 ALL -0.2572
-2.7694 AND -0.3003
-2.7694 AS -0.2576
-2.7694 ASSIST -0.2576
-3.0704 BACK -0.2576
-2.7694 BACKWARD -0.2567
-3.0704 BOOKMARK -0.2576
-3.0704 BREAKPOINTS -0.2576
-2.7694 BUILD -0.2966
-2.0704 CLOSE -0.2481
-3.0704 COLLAPSE -0.2981
-3.0704 CONSRUCTOR -0.2576
-3.0704 CONTENT -0.3003
-3.0704 CONTENTS -0.2576
-3.0704 CONTEXT -0.3007
-2.7694 COPY -0.2576
-3.0704 CUSTOMIZE -0.2981
-2.7694 CUT -0.2576
-2.7694 DELETE -0.2576
-3.0704 DYNAMIC -0.2988
-1.0212 ECLIPSE -0.2443
-1.9565 EDIT -0.2502
-2.1673 EDITOR -0.2576
-3.0704 EXIT -0.2576
-3.0704 EXPAND -0.2981
-3.0704 EXPORT -0.2576
-1.8400 FILE -0.2894
-3.0704 FIND -0.3003
-3.0704 FORMAT -0.2576
-2.5933 FORWARD -0.2567
-3.0704 GETTER -0.3007
-2.7694 GO -0.2996
-3.0704 HASH -0.2576
-2.2923 HELP -0.2551
-2.7694 HISTORY -0.2576
-3.0704 ID -0.2576
-3.0704 IMPORT -0.2576
-3.0704 IMPORTS -0.2576
-2.5933 IN -0.2563
-3.0704 INFORMATION -0.2576
-2.4683 INSERT -0.2996
-2.7694 INTO -0.2576
-3.0704 KEY -0.3003
-3.0704 LAST -0.2962
-3.0704 LINE -0.2576
-3.0704 LINK -0.3007
-3.0704 LISTENING -0.2576
-3.0704 LOCK -0.3007
-3.0704 MAXIMIZE -0.3003
-3.0704 MENU -0.2576
-3.0704 MINIMIZE -0.3003
-3.0704 MOVE -0.2576
-1.9243 NAVIGATE -0.2909
-2.4683 NEW -0.2539
-2.3714 NEXT -0.2481
-2.4683 OPEN -0.2981
-2.7694 OR -0.2981
-3.0704 ORGANIZE -0.3007
-3.0704 OTHERS -0.2576
-3.0704 OVER -0.2576
-2.7694 PAGE -0.2576
-2.7694 PARM -0.3003
-3.0704 PART -0.2576
-2.7694 PASTE -0.2576
-2.1673 PERSPECTIVE -0.2559
-3.0704 PERSPECTIVES -0.2576
-3.0704 PIN -0.2981
-3.0704 PREFERENCES -0.2576
-2.3714 PREVIOUS -0.2481
-3.0704 PRINT -0.2576
-2.4683 PROJECT -0.2567
-3.0704 PROJECTS -0.2576
-3.0704 PROPERTIES -0.2576
-3.0704 QUICK -0.3007
-3.0704 REBUILD -0.2576
-3.0704 REDO -0.2576
-2.7694 REFRESH -0.2576
-2.7694 RENAME -0.2576
-3.0704 REPLACE -0.2576
-3.0704 RESET -0.2981
-3.0704 RESTART -0.3007
-3.0704 RESUME -0.2576
-3.0704 REVERT -0.2576
-3.0704 RUN -0.3003
-2.3714 SAVE -0.2502
-2.7694 SEARCH -0.2576
-2.7694 SELECT -0.2981
-3.0704 SETTER -0.2576
-2.2923 SHOW -0.2947
-3.0704 SKIP -0.3007
-2.7694 STEP -0.2999
-3.0704 STOP -0.3007
-3.0704 STRING -0.2576
-3.0704 TARGET -0.2576
-2.7694 TASK -0.2576
-3.0704 TERMINATE -0.2576
-3.0704 TIPS -0.3003
-2.7694 TO -0.3003
-3.0704 TOGGLE -0.3007
-3.0704 TOOLBAR -0.2576
-3.0704 TRICKS -0.2576
-3.0704 TYPE -0.2576
-2.7694 UNDO -0.2576
-3.0704 UNRELATED -0.3007
-3.0704 UP -0.2576
-2.3714 VIEW -0.2567
-3.0704 WELCOME -0.2576
-3.0704 WINDOW -0.2576
-3.0704 WITH -0.2981
-3.0704 WORKBENCH -0.2576
-3.0704 WORKSPACE -0.2576

\2-grams:
-0.3010 <s> ECLIPSE -0.0000
-0.3010 ABOUT </s> -0.3010
-0.3010 ACTIVATE EDITOR 0.0000
-0.3010 ACTIVE VIEW -0.2041
-0.6021 ADD BOOKMARK 0.0000
-0.6021 ADD TASK 0.0000
-0.3590 ALL </s> -0.3010
-1.2041 ALL PERSPECTIVES 0.0000
-0.6021 AND REPLACE 0.0000
-0.6021 AND TRICKS 0.0000
-0.3010 AS </s> -0.3010
-0.3010 ASSIST </s> -0.3010
-0.3010 BACK </s> -0.3010
-0.6021 BACKWARD </s> -0.3010
-0.6021 BACKWARD HISTORY 0.0000
-0.3010 BOOKMARK </s> -0.3010
-0.3010 BREAKPOINTS </s> -0.3010
-0.6021 BUILD ALL -0.0512
-0.6021 BUILD PROJECT -0.0969
-1.0000 CLOSE </s> -0.3010
-1.0000 CLOSE ALL 0.0000
-1.3010 CLOSE OTHERS 0.0000
-1.3010 CLOSE PART 0.0000
-1.0000 CLOSE PERSPECTIVE -0.0512
-1.3010 CLOSE PROJECT -0.0969
-1.3010 CLOSE UNRELATED 0.0000
-0.3010 COLLAPSE ALL -0.0512
-0.3010 CONSRUCTOR </s> -0.3010
-0.3010 CONTENT ASSIST 0.0000
-0.3010 CONTENTS </s> -0.3010
-0.3010 CONTEXT INFORMATION 0.0000
-0.3010 COPY </s> -0.3010
-0.3010 CUSTOMIZE PERSPECTIVE -0.0969
-0.3010 CUT </s> -0.3010
-0.3010 DELETE </s> -0.3010
-0.3010 DYNAMIC HELP -0.2632
-2.3502 ECLIPSE ACTIVATE 0.0000
-2.3502 ECLIPSE BACKWARD -0.1761
-2.3502 ECLIPSE BUILD -0.1761
-1.5051 ECLIPSE CLOSE -0.0414
-2.3502 ECLIPSE COPY 0.0000
-2.3502 ECLIPSE CUSTOMIZE 0.0000
-2.3502 ECLIPSE CUT 0.0000
-2.3502 ECLIPSE DELETE 0.0000
-2.3502 ECLIPSE DYNAMIC 0.0000
-1.2711 ECLIPSE EDIT -0.0322
-2.3502 ECLIPSE EXPAND 0.0000
-1.1198 ECLIPSE FILE 0.0000
-2.3502 ECLIPSE FORMAT 0.0000
-2.3502 ECLIPSE FORWARD -0.1249
-2.3502 ECLIPSE GO -0.1761
-1.6513 ECLIPSE HELP -0.0669
-1.7482 ECLIPSE INSERT 0.0000
-2.3502 ECLIPSE LOCK 0.0000
-2.3502 ECLIPSE MAXIMIZE 0.0000
-2.3502 ECLIPSE MINIMIZE 0.0000
-1.2041 ECLIPSE NAVIGATE 0.0000
-1.8731 ECLIPSE NEW 0.0000
-1.8731 ECLIPSE NEXT -0.1461
-1.7482 ECLIPSE OPEN 0.0000
-2.3502 ECLIPSE ORGANIZE 0.0000
-2.3502 ECLIPSE PASTE 0.0000
-2.3502 ECLIPSE PIN 0.0000
-2.3502 ECLIPSE PREFERENCES 0.0000
-1.7482 ECLIPSE PREVIOUS -0.0792
-2.3502 ECLIPSE PROJECT -0.2430
-2.3502 ECLIPSE REBUILD 0.0000
-2.3502 ECLIPSE REFRESH 0.0000
-2.3502 ECLIPSE RENAME 0.0000
-2.3502 ECLIPSE RESET 0.0000
-2.3502 ECLIPSE RESUME 0.0000
-2.3502 ECLIPSE RUN 0.0000
-2.0492 ECLIPSE SAVE -0.1461
-2.3502 ECLIPSE SEARCH 0.0000
-2.3502 ECLIPSE SELECT 0.0000
-1.8731 ECLIPSE SHOW -0.1761
-2.3502 ECLIPSE SKIP 0.0000
-2.0492 ECLIPSE STEP 0.0000
-2.3502 ECLIPSE STOP 0.0000
-2.3502 ECLIPSE TERMINATE 0.0000
-2.3502 ECLIPSE UNDO 0.0000
-1.4150 EDIT </s> -0.3010
-1.1139 EDIT ADD 0.0000
-1.4150 EDIT CONTENT 0.0000
-1.4150 EDIT CONTEXT 0.0000
-1.4150 EDIT COPY 0.0000
-1.4150 EDIT CUT 0.0000
-1.4150 EDIT DELETE 0.0000
-1.4150 EDIT FIND 0.0000
-1.4150 EDIT PASTE 0.0000
-1.4150 EDIT REDO 0.0000
-1.4150 EDIT SELECT 0.0000
-1.4150 EDIT UNDO 0.0000
-0.3010 EDITOR </s> -0.3010
-0.3010 EXIT </s> -0.3010
-0.3010 EXPAND ALL -0.0512
-0.3010 EXPORT </s> -0.3010
-1.0544 FILE CLOSE -0.1761
-1.5315 FILE EXIT 0.0000
-1.5315 FILE EXPORT 0.0000
-1.5315 FILE IMPORT 0.0000
-1.5315 FILE MOVE 0.0000
-1.5315 FILE NEW -0.1761
-1.5315 FILE PRINT 0.0000
-1.5315 FILE PROPERTIES 0.0000
-1.5315 FILE REFRESH 0.0000
-1.5315 FILE RENAME 0.0000
-1.5315 FILE RESTART 0.0000
-1.5315 FILE REVERT 0.0000
-1.0544 FILE SAVE -0.0792
-0.3010 FIND AND -0.1761
-0.3010 FORMAT </s> -0.3010
-0.4771 FORWARD </s> -0.3010
-0.7782 FORWARD HISTORY 0.0000
-0.3010 GETTER SETTER 0.0000
-0.6021 GO INTO 0.0000
-0.6021 GO TO -0.1761
-0.3010 HASH </s> -0.3010
-1.0792 HELP </s> -0.3010
-1.0792 HELP ABOUT 0.0000
-1.0792 HELP CONTENTS 0.0000
-1.0792 HELP SEARCH 0.0000
-1.0792 HELP TIPS 0.0000
-1.0792 HELP WELCOME 0.0000
-0.3010 HISTORY </s> -0.3010
-0.3010 ID </s> -0.3010
-0.3010 IMPORT </s> -0.3010
-0.3010 IMPORTS </s> -0.3010
-0.7782 IN </s> -0.3010
-0.7782 IN PARM -0.1761
-0.7782 IN QUICK 0.0000
-0.3010 INFORMATION </s> -0.3010
-0.9031 INSERT CONSRUCTOR 0.0000
-0.9031 INSERT GETTER 0.0000
-0.9031 INSERT HASH 0.0000
-0.9031 INSERT STRING 0.0000
-0.3010 INTO </s> -0.3010
-0.3010 KEY ASSIST 0.0000
-0.3010 LAST EDIT -0.2840
-0.3010 LINE </s> -0.3010
-0.3010 LINK WITH 0.0000
-0.3010 LISTENING </s> -0.3010
-0.3010 LOCK TOOLBAR 0.0000
-0.3010 MAXIMIZE ACTIVE 0.0000
-0.3010 MENU </s> -0.3010
-0.3010 MINIMIZE ACTIVE 0.0000
-0.3010 MOVE </s> -0.3010
-1.4472 NAVIGATE BACK 0.0000
-1.4472 NAVIGATE BACKWARD -0.1761
-1.4472 NAVIGATE COLLAPSE 0.0000
-1.1461 NAVIGATE FORWARD 0.0000
-1.4472 NAVIGATE GO -0.1761
-1.1461 NAVIGATE NEXT -0.2041
-1.4472 NAVIGATE PREVIOUS -0.2553
-0.9700 NAVIGATE SHOW -0.1761
-1.4472 NAVIGATE TOGGLE 0.0000
-1.4472 NAVIGATE UP 0.0000
-0.6021 NEW </s> -0.3010
-0.9031 NEW EDITOR 0.0000
-0.9031 NEW WINDOW 0.0000
-1.0000 NEXT </s> -0.3010
-1.0000 NEXT EDITOR 0.0000
-1.0000 NEXT PAGE 0.0000
-1.0000 NEXT PERSPECTIVE -0.0969
-1.0000 NEXT VIEW -0.1461
-0.9031 OPEN PROJECT -0.0969
-0.9031 OPEN TASK 0.0000
-0.9031 OPEN TYPE 0.0000
-0.9031 OPEN WORKSPACE 0.0000
-0.3010 OR EDITOR 0.0000
-0.3010 ORGANIZE IMPORTS 0.0000
-0.3010 OTHERS </s> -0.3010
-0.3010 OVER </s> -0.3010
-0.3010 PAGE </s> -0.3010
-0.6021 PARM ID 0.0000
-0.6021 PARM TARGET 0.0000
-0.3010 PART </s> -0.3010
-0.3010 PASTE </s> -0.3010
-0.4260 PERSPECTIVE </s> -0.3010
-1.2041 PERSPECTIVE AS 0.0000
-1.2041 PERSPECTIVE PARM -0.1761
-0.3010 PERSPECTIVES </s> -0.3010
-0.3010 PIN EDITOR 0.0000
-0.3010 PREFERENCES </s> -0.3010
-1.0000 PREVIOUS </s> -0.3010
-1.0000 PREVIOUS EDITOR 0.0000
-1.0000 PREVIOUS PAGE 0.0000
-1.0000 PREVIOUS PERSPECTIVE -0.0969
-1.0000 PREVIOUS VIEW -0.1461
-0.3010 PRINT </s> -0.3010
-0.4260 PROJECT </s> -0.3010
-0.9031 PROJECT BUILD -0.1761
-0.3010 PROJECTS </s> -0.3010
-0.3010 PROPERTIES </s> -0.3010
-0.3010 QUICK MENU 0.0000
-0.3010 REBUILD </s> -0.3010
-0.3010 REDO </s> -0.3010
-0.3010 REFRESH </s> -0.3010
-0.3010 RENAME </s> -0.3010
-0.3010 REPLACE </s> -0.3010
-0.3010 RESET PERSPECTIVE -0.0969
-0.3010 RESTART WORKBENCH 0.0000
-0.3010 RESUME </s> -0.3010
-0.3010 REVERT </s> -0.3010
-0.3010 RUN TO -0.1761
-0.6990 SAVE </s> -0.3010
-1.0000 SAVE ALL -0.0512
-1.0000 SAVE AS 0.0000
-1.0000 SAVE PERSPECTIVE -0.2730
-0.3010 SEARCH </s> -0.3010
-0.3010 SELECT ALL -0.0512
-0.3010 SETTER </s> -0.3010
-0.6021 SHOW IN 0.0000
-1.0792 SHOW KEY 0.0000
-1.0792 SHOW PERSPECTIVE -0.0969
-1.0792 SHOW VIEW -0.1461
-0.3010 SKIP BREAKPOINTS 0.0000
-0.6021 STEP INTO 0.0000
-0.6021 STEP OVER 0.0000
-0.3010 STOP LISTENING 0.0000
-0.3010 STRING </s> -0.3010
-0.3010 TARGET </s> -0.3010
-0.3010 TASK </s> -0.3010
-0.3010 TERMINATE </s> -0.3010
-0.3010 TIPS AND -0.1761
-0.6021 TO LAST 0.0000
-0.6021 TO LINE 0.0000
-0.3010 TOGGLE LINK 0.0000
-0.3010 TOOLBAR </s> -0.3010
-0.3010 TRICKS </s> -0.3010
-0.3010 TYPE </s> -0.3010
-0.3010 UNDO </s> -0.3010
-0.3010 UNRELATED PROJECTS 0.0000
-0.3010 UP </s> -0.3010
-0.5229 VIEW </s> -0.3010
-0.6990 VIEW OR 0.0000
-0.3010 WELCOME </s> -0.3010
-0.3010 WINDOW </s> -0.3010
-0.3010 WITH EDITOR 0.0000
-0.3010 WORKBENCH </s> -0.3010
-0.3010 WORKSPACE </s> -0.3010

\3-grams:
-2.3502 <s> ECLIPSE ACTIVATE
-2.3502 <s> ECLIPSE BACKWARD
-2.3502 <s> ECLIPSE BUILD
-1.5051 <s> ECLIPSE CLOSE
-2.3502 <s> ECLIPSE COPY
-2.3502 <s> ECLIPSE CUSTOMIZE
-2.3502 <s> ECLIPSE CUT
-2.3502 <s> ECLIPSE DELETE
-2.3502 <s> ECLIPSE DYNAMIC
-1.2711 <s> ECLIPSE EDIT
-2.3502 <s> ECLIPSE EXPAND
-1.1198 <s> ECLIPSE FILE
-2.3502 <s> ECLIPSE FORMAT
-2.3502 <s> ECLIPSE FORWARD
-2.3502 <s> ECLIPSE GO
-1.6513 <s> ECLIPSE HELP
-1.7482 <s> ECLIPSE INSERT
-2.3502 <s> ECLIPSE LOCK
-2.3502 <s> ECLIPSE MAXIMIZE
-2.3502 <s> ECLIPSE MINIMIZE
-1.2041 <s> ECLIPSE NAVIGATE
-1.8731 <s> ECLIPSE NEW
-1.8731 <s> ECLIPSE NEXT
-1.7482 <s> ECLIPSE OPEN
-2.3502 <s> ECLIPSE ORGANIZE
-2.3502 <s> ECLIPSE PASTE
-2.3502 <s> ECLIPSE PIN
-2.3502 <s> ECLIPSE PREFERENCES
-1.7482 <s> ECLIPSE PREVIOUS
-2.3502 <s> ECLIPSE PROJECT
-2.3502 <s> ECLIPSE REBUILD
-2.3502 <s> ECLIPSE REFRESH
-2.3502 <s> ECLIPSE RENAME
-2.3502 <s> ECLIPSE RESET
-2.3502 <s> ECLIPSE RESUME
-2.3502 <s> ECLIPSE RUN
-2.0492 <s> ECLIPSE SAVE
-2.3502 <s> ECLIPSE SEARCH
-2.3502 <s> ECLIPSE SELECT
-1.8731 <s> ECLIPSE SHOW
-2.3502 <s> ECLIPSE SKIP
-2.0492 <s> ECLIPSE STEP
-2.3502 <s> ECLIPSE STOP
-2.3502 <s> ECLIPSE TERMINATE
-2.3502 <s> ECLIPSE UNDO
-0.3010 ACTIVATE EDITOR </s>
-0.3010 ACTIVE VIEW OR
-0.3010 ADD BOOKMARK </s>
-0.3010 ADD TASK </s>
-0.3010 ALL PERSPECTIVES </s>
-0.3010 AND REPLACE </s>
-0.3010 AND TRICKS </s>
-0.3010 BACKWARD HISTORY </s>
-0.3010 BUILD ALL </s>
-0.3010 BUILD PROJECT </s>
-0.6021 CLOSE ALL </s>
-0.6021 CLOSE ALL PERSPECTIVES
-0.3010 CLOSE OTHERS </s>
-0.3010 CLOSE PART </s>
-0.6021 CLOSE PERSPECTIVE </s>
-0.6021 CLOSE PERSPECTIVE PARM
-0.3010 CLOSE PROJECT </s>
-0.3010 CLOSE UNRELATED PROJECTS
-0.3010 COLLAPSE ALL </s>
-0.3010 CONTENT ASSIST </s>
-0.3010 CONTEXT INFORMATION </s>
-0.3010 CUSTOMIZE PERSPECTIVE </s>
-0.3010 DYNAMIC HELP </s>
-0.3010 ECLIPSE ACTIVATE EDITOR
-0.3010 ECLIPSE BACKWARD </s>
-0.3010 ECLIPSE BUILD PROJECT
-1.1461 ECLIPSE CLOSE </s>
-1.1461 ECLIPSE CLOSE ALL
-1.1461 ECLIPSE CLOSE PART
-0.8451 ECLIPSE CLOSE PERSPECTIVE
-1.1461 ECLIPSE CLOSE PROJECT
-1.1461 ECLIPSE CLOSE UNRELATED
-0.3010 ECLIPSE COPY </s>
-0.3010 ECLIPSE CUSTOMIZE PERSPECTIVE
-0.3010 ECLIPSE CUT </s>
-0.3010 ECLIPSE DELETE </s>
-0.3010 ECLIPSE DYNAMIC HELP
-1.0792 ECLIPSE EDIT ADD
-1.3802 ECLIPSE EDIT CONTENT
-1.3802 ECLIPSE EDIT CONTEXT
-1.3802 ECLIPSE EDIT COPY
-1.3802 ECLIPSE EDIT CUT
-1.3802 ECLIPSE EDIT DELETE
-1.3802 ECLIPSE EDIT FIND
-1.3802 ECLIPSE EDIT PASTE
-1.3802 ECLIPSE EDIT REDO
-1.3802 ECLIPSE EDIT SELECT
-1.3802 ECLIPSE EDIT UNDO
-0.3010 ECLIPSE EXPAND ALL
-1.0544 ECLIPSE FILE CLOSE
-1.5315 ECLIPSE FILE EXIT
-1.5315 ECLIPSE FILE EXPORT
-1.5315 ECLIPSE FILE IMPORT
-1.5315 ECLIPSE FILE MOVE
-1.5315 ECLIPSE FILE NEW
-1.5315 ECLIPSE FILE PRINT
-1.5315 ECLIPSE FILE PROPERTIES
-1.5315 ECLIPSE FILE REFRESH
-1.5315 ECLIPSE FILE RENAME
-1.5315 ECLIPSE FILE RESTART
-1.5315 ECLIPSE FILE REVERT
-1.0544 ECLIPSE FILE SAVE
-0.3010 ECLIPSE FORMAT </s>
-0.3010 ECLIPSE FORWARD </s>
-0.3010 ECLIPSE GO TO
-1.0000 ECLIPSE HELP ABOUT
-1.0000 ECLIPSE HELP CONTENTS
-1.0000 ECLIPSE HELP SEARCH
-1.0000 ECLIPSE HELP TIPS
-1.0000 ECLIPSE HELP WELCOME
-0.9031 ECLIPSE INSERT CONSRUCTOR
-0.9031 ECLIPSE INSERT GETTER
-0.9031 ECLIPSE INSERT HASH
-0.9031 ECLIPSE INSERT STRING
-0.3010 ECLIPSE LOCK TOOLBAR
-0.3010 ECLIPSE MAXIMIZE ACTIVE
-0.3010 ECLIPSE MINIMIZE ACTIVE
-1.4472 ECLIPSE NAVIGATE BACK
-1.4472 ECLIPSE NAVIGATE BACKWARD
-1.4472 ECLIPSE NAVIGATE COLLAPSE
-1.1461 ECLIPSE NAVIGATE FORWARD
-1.4472 ECLIPSE NAVIGATE GO
-1.1461 ECLIPSE NAVIGATE NEXT
-1.4472 ECLIPSE NAVIGATE PREVIOUS
-0.9700 ECLIPSE NAVIGATE SHOW
-1.4472 ECLIPSE NAVIGATE TOGGLE
-1.4472 ECLIPSE NAVIGATE UP
-0.7782 ECLIPSE NEW </s>
-0.7782 ECLIPSE NEW EDITOR
-0.7782 ECLIPSE NEW WINDOW
-0.7782 ECLIPSE NEXT EDITOR
-0.7782 ECLIPSE NEXT PERSPECTIVE
-0.7782 ECLIPSE NEXT VIEW
-0.9031 ECLIPSE OPEN PROJECT
-0.9031 ECLIPSE OPEN TASK
-0.9031 ECLIPSE OPEN TYPE
-0.9031 ECLIPSE OPEN WORKSPACE
-0.3010 ECLIPSE ORGANIZE IMPORTS
-0.3010 ECLIPSE PASTE </s>
-0.3010 ECLIPSE PIN EDITOR
-0.3010 ECLIPSE PREFERENCES </s>
-0.9031 ECLIPSE PREVIOUS EDITOR
-0.9031 ECLIPSE PREVIOUS PAGE
-0.9031 ECLIPSE PREVIOUS PERSPECTIVE
-0.9031 ECLIPSE PREVIOUS VIEW
-0.3010 ECLIPSE PROJECT BUILD
-0.3010 ECLIPSE REBUILD </s>
-0.3010 ECLIPSE REFRESH </s>
-0.3010 ECLIPSE RENAME </s>
-0.3010 ECLIPSE RESET PERSPECTIVE
-0.3010 ECLIPSE RESUME </s>
-0.3010 ECLIPSE RUN TO
-0.6021 ECLIPSE SAVE </s>
-0.6021 ECLIPSE SAVE PERSPECTIVE
-0.3010 ECLIPSE SEARCH </s>
-0.3010 ECLIPSE SELECT ALL
-0.7782 ECLIPSE SHOW KEY
-0.7782 ECLIPSE SHOW PERSPECTIVE
-0.7782 ECLIPSE SHOW VIEW
-0.3010 ECLIPSE SKIP BREAKPOINTS
-0.6021 ECLIPSE STEP INTO
-0.6021 ECLIPSE STEP OVER
-0.3010 ECLIPSE STOP LISTENING
-0.3010 ECLIPSE TERMINATE </s>
-0.3010 ECLIPSE UNDO </s>
-0.6021 EDIT ADD BOOKMARK
-0.6021 EDIT ADD TASK
-0.3010 EDIT CONTENT ASSIST
-0.3010 EDIT CONTEXT INFORMATION
-0.3010 EDIT COPY </s>
-0.3010 EDIT CUT </s>
-0.3010 EDIT DELETE </s>
-0.3010 EDIT FIND AND
-0.3010 EDIT PASTE </s>
-0.3010 EDIT REDO </s>
-0.3010 EDIT SELECT ALL
-0.3010 EDIT UNDO </s>
-0.3010 EXPAND ALL </s>
-0.7782 FILE CLOSE </s>
-0.7782 FILE CLOSE ALL
-0.7782 FILE CLOSE OTHERS
-0.3010 FILE EXIT </s>
-0.3010 FILE EXPORT </s>
-0.3010 FILE IMPORT </s>
-0.3010 FILE MOVE </s>
-0.3010 FILE NEW </s>
-0.3010 FILE PRINT </s>
-0.3010 FILE PROPERTIES </s>
-0.3010 FILE REFRESH </s>
-0.3010 FILE RENAME </s>
-0.3010 FILE RESTART WORKBENCH
-0.3010 FILE REVERT </s>
-0.7782 FILE SAVE </s>
-0.7782 FILE SAVE ALL
-0.7782 FILE SAVE AS
-0.3010 FIND AND REPLACE
-0.3010 FORWARD HISTORY </s>
-0.3010 GETTER SETTER </s>
-0.3010 GO INTO </s>
-0.3010 GO TO LAST
-0.3010 HELP ABOUT </s>
-0.3010 HELP CONTENTS </s>
-0.3010 HELP SEARCH </s>
-0.3010 HELP TIPS AND
-0.3010 HELP WELCOME </s>
-0.3010 IN PARM TARGET
-0.3010 IN QUICK MENU
-0.3010 INSERT CONSRUCTOR </s>
-0.3010 INSERT GETTER SETTER
-0.3010 INSERT HASH </s>
-0.3010 INSERT STRING </s>
-0.3010 KEY ASSIST </s>
-0.3010 LAST EDIT </s>
-0.3010 LINK WITH EDITOR
-0.3010 LOCK TOOLBAR </s>
-0.3010 MAXIMIZE ACTIVE VIEW
-0.3010 MINIMIZE ACTIVE VIEW
-0.3010 NAVIGATE BACK </s>
-0.3010 NAVIGATE BACKWARD HISTORY
-0.3010 NAVIGATE COLLAPSE ALL
-0.6021 NAVIGATE FORWARD </s>
-0.6021 NAVIGATE FORWARD HISTORY
-0.3010 NAVIGATE GO INTO
-0.6021 NAVIGATE NEXT </s>
-0.6021 NAVIGATE NEXT PAGE
-0.3010 NAVIGATE PREVIOUS </s>
-0.3010 NAVIGATE SHOW IN
-0.3010 NAVIGATE TOGGLE LINK
-0.3010 NAVIGATE UP </s>
-0.3010 NEW EDITOR </s>
-0.3010 NEW WINDOW </s>
-0.3010 NEXT EDITOR </s>
-0.3010 NEXT PAGE </s>
-0.3010 NEXT PERSPECTIVE </s>
-0.3010 NEXT VIEW </s>
-0.3010 OPEN PROJECT </s>
-0.3010 OPEN TASK </s>
-0.3010 OPEN TYPE </s>
-0.3010 OPEN WORKSPACE </s>
-0.3010 OR EDITOR </s>
-0.3010 ORGANIZE IMPORTS </s>
-0.3010 PARM ID </s>
-0.3010 PARM TARGET </s>
-0.3010 PERSPECTIVE AS </s>
-0.3010 PERSPECTIVE PARM ID
-0.3010 PIN EDITOR </s>
-0.3010 PREVIOUS EDITOR </s>
-0.3010 PREVIOUS PAGE </s>
-0.3010 PREVIOUS PERSPECTIVE </s>
-0.3010 PREVIOUS VIEW </s>
-0.3010 PROJECT BUILD ALL
-0.3010 QUICK MENU </s>
-0.3010 RESET PERSPECTIVE </s>
-0.3010 RESTART WORKBENCH </s>
-0.3010 RUN TO LINE
-0.3010 SAVE ALL </s>
-0.3010 SAVE AS </s>
-0.3010 SAVE PERSPECTIVE AS
-0.3010 SELECT ALL </s>
-0.7782 SHOW IN </s>
-0.7782 SHOW IN PARM
-0.7782 SHOW IN QUICK
-0.3010 SHOW KEY ASSIST
-0.3010 SHOW PERSPECTIVE </s>
-0.3010 SHOW VIEW </s>
-0.3010 SKIP BREAKPOINTS </s>
-0.3010 STEP INTO </s>
-0.3010 STEP OVER </s>
-0.3010 STOP LISTENING </s>
-0.3010 TIPS AND TRICKS
-0.3010 TO LAST EDIT
-0.3010 TO LINE </s>
-0.3010 TOGGLE LINK WITH
-0.3010 UNRELATED PROJECTS </s>
-0.3010 VIEW OR EDITOR
-0.3010 WITH EDITOR </s>

\end\
